digraph Tree {
0 [label="X[9] <= 0.5000\ngini = 0.5\nsamples = 300", shape="box"] ;
1 [label="X[0] <= 0.5000\ngini = 0.201890722641\nsamples = 158", shape="box"] ;
0 -> 1 ;
2 [label="X[7] <= 0.5000\ngini = 0.116432818074\nsamples = 145", shape="box"] ;
1 -> 2 ;
3 [label="X[2] <= 0.5000\ngini = 0.0931096875153\nsamples = 143", shape="box"] ;
2 -> 3 ;
4 [label="X[1] <= 0.5000\ngini = 0.031488\nsamples = 125", shape="box"] ;
3 -> 4 ;
5 [label="X[8] <= 0.5000\ngini = 0.0162590701424\nsamples = 122", shape="box"] ;
4 -> 5 ;
6 [label="gini = 0.0000\nsamples = 106\nvalue = [ 106.    0.]", shape="box"] ;
5 -> 6 ;
7 [label="X[4] <= 0.5000\ngini = 0.1171875\nsamples = 16", shape="box"] ;
5 -> 7 ;
8 [label="gini = 0.0000\nsamples = 8\nvalue = [ 8.  0.]", shape="box"] ;
7 -> 8 ;
9 [label="X[10] <= 0.5000\ngini = 0.21875\nsamples = 8", shape="box"] ;
7 -> 9 ;
10 [label="gini = 0.0000\nsamples = 4\nvalue = [ 4.  0.]", shape="box"] ;
9 -> 10 ;
11 [label="gini = 0.3750\nsamples = 4\nvalue = [ 3.  1.]", shape="box"] ;
9 -> 11 ;
12 [label="X[6] <= 0.5000\ngini = 0.444444444444\nsamples = 3", shape="box"] ;
4 -> 12 ;
13 [label="gini = 0.0000\nsamples = 2\nvalue = [ 2.  0.]", shape="box"] ;
12 -> 13 ;
14 [label="gini = 0.0000\nsamples = 1\nvalue = [ 0.  1.]", shape="box"] ;
12 -> 14 ;
15 [label="X[6] <= 0.5000\ngini = 0.401234567901\nsamples = 18", shape="box"] ;
3 -> 15 ;
16 [label="X[3] <= 0.5000\ngini = 0.260355029586\nsamples = 13", shape="box"] ;
15 -> 16 ;
17 [label="X[8] <= 0.5000\ngini = 0.152777777778\nsamples = 12", shape="box"] ;
16 -> 17 ;
18 [label="gini = 0.0000\nsamples = 9\nvalue = [ 9.  0.]", shape="box"] ;
17 -> 18 ;
19 [label="X[4] <= 0.5000\ngini = 0.444444444444\nsamples = 3", shape="box"] ;
17 -> 19 ;
20 [label="gini = 0.0000\nsamples = 1\nvalue = [ 1.  0.]", shape="box"] ;
19 -> 20 ;
21 [label="gini = 0.5000\nsamples = 2\nvalue = [ 1.  1.]", shape="box"] ;
19 -> 21 ;
22 [label="gini = 0.0000\nsamples = 1\nvalue = [ 0.  1.]", shape="box"] ;
16 -> 22 ;
23 [label="X[8] <= 0.5000\ngini = 0.48\nsamples = 5", shape="box"] ;
15 -> 23 ;
24 [label="X[4] <= 0.5000\ngini = 0.444444444444\nsamples = 3", shape="box"] ;
23 -> 24 ;
25 [label="gini = 0.0000\nsamples = 1\nvalue = [ 1.  0.]", shape="box"] ;
24 -> 25 ;
26 [label="X[10] <= 0.5000\ngini = 0.5\nsamples = 2", shape="box"] ;
24 -> 26 ;
27 [label="gini = 0.0000\nsamples = 1\nvalue = [ 1.  0.]", shape="box"] ;
26 -> 27 ;
28 [label="gini = 0.0000\nsamples = 1\nvalue = [ 0.  1.]", shape="box"] ;
26 -> 28 ;
29 [label="gini = 0.0000\nsamples = 2\nvalue = [ 0.  2.]", shape="box"] ;
23 -> 29 ;
30 [label="gini = 0.0000\nsamples = 2\nvalue = [ 0.  2.]", shape="box"] ;
2 -> 30 ;
31 [label="X[5] <= 0.5000\ngini = 0.426035502959\nsamples = 13", shape="box"] ;
1 -> 31 ;
32 [label="X[8] <= 0.5000\ngini = 0.444444444444\nsamples = 6", shape="box"] ;
31 -> 32 ;
33 [label="gini = 0.0000\nsamples = 4\nvalue = [ 4.  0.]", shape="box"] ;
32 -> 33 ;
34 [label="gini = 0.0000\nsamples = 2\nvalue = [ 0.  2.]", shape="box"] ;
32 -> 34 ;
35 [label="gini = 0.0000\nsamples = 7\nvalue = [ 0.  7.]", shape="box"] ;
31 -> 35 ;
36 [label="X[10] <= 0.5000\ngini = 0.130926403491\nsamples = 142", shape="box"] ;
0 -> 36 ;
37 [label="X[2] <= 0.5000\ngini = 0.18\nsamples = 10", shape="box"] ;
36 -> 37 ;
38 [label="gini = 0.0000\nsamples = 9\nvalue = [ 9.  0.]", shape="box"] ;
37 -> 38 ;
39 [label="gini = 0.0000\nsamples = 1\nvalue = [ 0.  1.]", shape="box"] ;
37 -> 39 ;
40 [label="X[4] <= 0.5000\ngini = 0.0150367309458\nsamples = 132", shape="box"] ;
36 -> 40 ;
41 [label="X[3] <= 0.5000\ngini = 0.0798611111111\nsamples = 24", shape="box"] ;
40 -> 41 ;
42 [label="gini = 0.0000\nsamples = 20\nvalue = [  0.  20.]", shape="box"] ;
41 -> 42 ;
43 [label="X[2] <= 0.5000\ngini = 0.375\nsamples = 4", shape="box"] ;
41 -> 43 ;
44 [label="gini = 0.0000\nsamples = 1\nvalue = [ 1.  0.]", shape="box"] ;
43 -> 44 ;
45 [label="gini = 0.0000\nsamples = 3\nvalue = [ 0.  3.]", shape="box"] ;
43 -> 45 ;
46 [label="gini = 0.0000\nsamples = 108\nvalue = [   0.  108.]", shape="box"] ;
40 -> 46 ;
}